-0.677572253179836,-0.589589802814094,-0.172761095751362,-0.326519326279329,0.148696485872072,0.768693905734354,-0.387272803025373,0.50620725883963,-0.332484914086474,-0.403778461668355,0.341389244739102,-0.161205517452672,-0.261439865664604,0.247394907730467,0.19048617986275,-0.367370192558136,0.241186546516514,-0.0800831796146159,0.425311205169599,0.388295414620806,0.471286319127862,-0.300149993701181,-0.979433205438885,0.651831475095542,0.380994968230417,-0.212652005985605,0.370658150409209,-0.226803507789966,0.0595159918418712,0.141388104704132,0.53678351209572,0.0721985666720569,0.207247751012931,-0.699400964551843,0.425324148065905,0.346411375350281,-0.153208528316359,-0.0956647383815911,0.0470250015699556,0.402082579013799,0.164001047465749,-0.251356003427005,0.0615322099569673,-0.356517638405664,0.105937933469521,-0.316359265661313,0.334843774736128,-0.522445608340539,0.0405044390745361,0.229608258986781,-0.448947852315814,-0.274110242296515,-0.359811479633193,0.802320529494448,0.198943756424356,0.335312408711013,-0.325549288581305,0.293006493350459,-0.21912032727835,-0.0797238383379485,-0.216176811064666,0.0133701855833524,0.0929218778247541,-0.0239494246939941,0.0565899273388672,-0.155894359643804,-0.227187763904599,0.216350551783899,-0.41270153766153,0.160192620685039,-0.360644827206648,-1.31887199037003,0.283665373445564,0.93507409560531,-0.445988128945611,0.705463597870054,0.206573586494877,-0.349328161349876,-0.223214754275607,-0.984631785168993,0.731177548840994,1.80835939058316,
